svm_type nu_svc
kernel_type rbf
gamma 0.00108932
nr_class 2
total_sv 90
rho 0.55052
label 1 0
nr_sv 48 42
SV
27.90988746091121 
8.322550894383941 22:1 73:1 96:1 153:1 168:1 171:1 180:1 210:1 259:0.704545 303:0.931818 335:1 403:1 436:1 466:1 488:0.943182 492:1 496:1 519:1 523:0.511364 565:1 654:1 676:1 695:1 763:0.954545 801:1 811:1 860:1 877:1 895:1 899:0.727273 913:0.625 
8.438488353175487 5:1 34:1 48:1 49:1 61:1 98:0.389474 122:1 199:1 279:1 300:0.447368 311:0.447368 343:1 372:1 405:0.934211 406:1 430:1 482:1 497:0.373684 533:1 568:1 605:1 702:1 731:1 776:1 780:0.389474 789:1 839:0.517544 909:1 
8.124923318802201 103:0.202381 106:1 163:1 172:0.695238 240:1 289:1 324:1 383:1 525:1 548:1 594:1 603:1 611:1 619:0.531746 637:1 643:1 647:1 675:0.630952 681:1 710:1 728:0.440476 741:1 753:0.619048 763:1 779:1 827:1 830:0.404762 854:1 868:0.68254 885:1 900:0.964286 916:0.845238 
11.42469742011287 26:1 49:0.431818 53:0.46875 90:0.19697 94:1 98:0.168182 213:0.613636 226:1 246:0.852273 248:0.3125 283:1 289:0.477273 300:0.193182 311:0.193182 325:1 367:0.227273 435:1 462:1 507:1 539:0.625 549:1 573:0.920455 668:0.471591 696:0.806818 739:1 746:0.625 753:0.295455 755:0.590909 769:0.46875 780:0.168182 816:0.375 839:0.44697 869:0.511364 899:0.363636 907:0.465909 910:0.420455 
13.74924553775948 55:0.535714 75:0.242063 77:0.404762 87:0.535714 89:0.535714 101:1 130:0.535714 164:0.535714 185:1 258:0.404762 266:0.535714 299:0.535714 329:0.535714 331:0.535714 333:0.72619 337:0.535714 353:0.535714 360:0.535714 369:0.309524 383:0.5 456:0.535714 463:0.535714 464:1 491:0.375 512:0.535714 523:0.535714 528:0.261905 541:0.39881 550:0.535714 577:0.535714 601:0.535714 607:0.202381 614:0.535714 708:0.535714 753:0.309524 758:0.535714 774:1 775:0.535714 785:0.373377 786:0.198413 869:0.535714 876:0.845238 891:0.535714 
16.97152123644635 27:0.33913 28:0.582609 63:0.0902174 74:0.247826 130:0.391304 171:0.765217 224:1 258:0.886957 266:0.782609 324:0.365217 420:1 445:0.0902174 449:0.782609 592:0.0847826 634:0.478261 637:0.730435 653:0.704348 664:0.26087 669:0.295652 701:0.608696 704:0.391304 708:0.391304 766:0.443478 779:0.365217 785:1 825:0.33913 835:0.608696 846:0.33913 871:0.147826 877:0.765217 895:0.382609 913:0.119565 916:0.308696 
25.0126548167124 24:0.212329 63:0.142123 172:1 182:0.342466 194:1 256:0.534247 291:0.726027 301:0.753425 374:0.363014 393:0.767123 410:0.675147 445:0.142123 464:0.575342 494:0.917808 496:0.30137 535:0.554795 541:0.458904 545:0.59589 602:0.753425 619:0.611872 709:0.684932 766:0.69863 825:0.534247 834:0.267123 913:0.188356 
27.90988746091121 77:1 103:1 234:0.955882 258:1 449:0.661765 467:1 544:1 627:1 669:1 757:0.735294 830:1 913:0.808824 
25.65575126951579 3:1 47:1 143:0.55303 301:0.555556 355:1 374:0.80303 407:1 415:0.681818 587:1 735:1 785:0.316804 816:1 823:0.878788 896:0.909091 
12.84511851183883 75:1 99:1 111:0.672131 172:0.239344 179:0.278689 180:0.721311 185:0.688525 299:0.737705 333:1 449:0.368852 456:0.737705 463:0.737705 464:0.688525 566:1 605:0.622951 607:0.278689 702:0.622951 738:0.819672 750:0.95082 785:0.514158 837:0.754098 839:0.322404 845:0.491803 902:1 913:0.22541 
18.02620790028534 27:0.58209 28:1 31:0.865672 48:0.283582 172:0.653731 187:1 301:0.547264 311:0.253731 352:0.223881 383:0.626866 410:0.588486 451:0.925373 494:1 498:1 541:1 551:1 615:0.746269 619:1 633:0.447761 636:1 661:0.58209 671:1 728:0.276119 784:0.880597 809:0.970149 
9.490003661198713 14:0.471264 53:0.316092 90:0.597701 120:0.477011 121:0.942529 131:0.597701 143:0.41954 178:1 213:0.310345 241:1 287:0.942529 332:0.367816 355:0.37931 357:0.448276 367:0.229885 384:1 403:0.505747 415:0.258621 416:0.471264 419:0.356322 433:0.632184 477:0.471264 483:0.356322 490:0.632184 545:1 620:0.191571 635:0.157088 668:0.477011 696:0.816092 722:0.224138 724:0.316092 734:1 739:0.252874 753:0.298851 755:0.298851 769:0.474138 861:0.465517 868:0.329502 910:0.425287 913:0.79023 
10.09719615649518 48:0.345455 53:1 84:1 143:0.331818 213:0.490909 248:1 389:1 433:1 462:0.533333 490:1 539:1 619:0.812121 620:0.30303 634:1 724:0.5 739:0.4 744:0.375758 746:1 755:0.945455 769:1 839:0.357576 861:0.736364 907:0.745455 910:0.672727 913:0.25 
27.90988746091121 75:0.598039 146:1 179:1 207:0.955882 218:1 300:1 311:1 449:0.661765 607:1 871:1 
0.933454638801905 24:1 66:1 77:0.548387 120:0.669355 240:0.677419 274:1 285:1 449:0.725806 451:1 465:1 509:0.669355 537:1 552:1 559:0.314516 567:1 581:0.475806 587:0.532258 620:0.537634 641:1 724:0.443548 744:1 745:0.314516 766:0.822581 769:0.665323 839:0.634409 840:1 845:0.483871 902:0.983871 907:0.66129 
7.487699821061208 10:1 53:0.793269 90:1 102:1 131:1 214:0.576923 300:0.326923 328:1 369:1 416:0.788462 448:1 454:1 503:1 542:1 581:0.567308 612:1 628:1 656:1 682:1 716:1 724:0.528846 740:1 748:1 753:1 755:1 759:1 769:0.793269 797:1 818:0.865385 839:0.378205 845:0.576923 873:1 878:1 883:1 898:1 907:0.788462 
0.8340469040973707 13:0.728395 26:0.54321 48:0.234568 53:0.679012 66:0.765432 84:0.679012 90:0.427984 102:0.641975 119:0.555556 143:0.450617 174:0.728395 184:1 195:0.728395 213:1 214:0.37037 248:0.339506 300:0.209877 311:0.209877 320:0.728395 363:1 367:0.246914 369:0.320988 381:1 384:0.358025 400:1 403:0.54321 404:1 433:0.679012 462:0.36214 506:0.728395 545:0.537037 547:0.728395 567:0.765432 573:1 588:0.728395 592:0.12037 657:0.555556 682:0.320988 724:0.679012 728:0.228395 739:0.271605 745:0.240741 748:0.641975 753:0.320988 755:0.320988 759:0.641975 767:0.256173 769:0.339506 804:1 805:1 808:0.364198 839:0.485597 861:1 907:0.506173 
3.425815480665108 13:0.686047 26:0.511628 48:0.22093 53:0.639535 90:0.403101 102:0.604651 119:0.523256 174:0.686047 184:0.94186 195:0.686047 213:0.313953 214:0.348837 248:0.319767 267:1 277:1 300:0.197674 311:0.593023 320:0.686047 363:0.94186 367:0.232558 369:0.302326 381:0.94186 384:0.337209 400:0.94186 403:0.511628 404:0.94186 407:0.383721 433:0.319767 483:0.360465 545:0.505814 547:0.686047 573:0.94186 581:0.343023 588:0.686047 635:0.158915 680:1 682:0.302326 685:0.406977 698:0.290698 724:0.639535 748:0.604651 753:0.604651 755:0.604651 767:0.241279 769:0.159884 786:0.193798 804:0.94186 805:0.94186 808:0.343023 839:0.457364 861:0.47093 874:0.813953 907:0.476744 
6.254943179697185 48:0.575758 51:1 59:1 183:1 221:1 237:1 254:1 268:1 275:1 335:0.666667 392:0.439394 422:1 430:0.575758 438:1 464:0.636364 476:1 485:0.265152 487:1 502:1 506:0.893939 524:0.621212 528:1 530:1 547:0.893939 557:1 562:1 571:1 574:1 585:1 592:0.443182 610:1 630:0.147727 663:1 689:1 691:0.787879 693:1 712:1 741:0.636364 766:0.772727 768:1 787:1 828:1 841:1 851:1 857:1 859:1 890:1 908:1 916:0.537879 
21.12610930923323 14:1 53:0.670732 111:1 256:0.95122 263:1 288:1 303:1 321:0.95122 391:0.731707 416:1 477:1 524:1 635:1 655:1 724:0.670732 745:0.47561 893:0.804878 905:1 
2.878355664242905 103:0.132813 106:0.65625 163:0.65625 172:0.9125 240:0.65625 255:1 259:0.96875 289:0.65625 324:0.65625 383:0.65625 412:1 449:0.351562 496:0.6875 525:0.65625 548:0.65625 594:0.65625 603:0.65625 611:0.65625 619:0.348958 637:0.65625 643:0.65625 647:0.65625 651:0.484375 675:0.414063 681:0.65625 695:0.6875 710:0.65625 728:0.289062 741:0.65625 753:0.40625 763:0.65625 779:0.65625 827:0.65625 830:0.265625 854:0.65625 868:0.447917 869:0.351563 885:0.65625 899:0.5 900:0.632812 916:0.554688 
14.93703919474518 171:0.830189 172:0.275472 182:0.471698 245:1 269:1 289:0.792453 291:1 301:0.345912 369:0.490566 374:1 395:1 403:0.830189 410:0.929919 521:1 541:0.632075 592:0.183962 619:0.421384 655:0.773585 675:1 867:0.367925 896:0.566038 
19.76992313894659 2:0.71 5:0.38 34:0.38 40:1 45:0.71 48:0.57 49:0.38 61:0.38 98:0.296 122:0.38 199:0.38 279:0.38 289:0.42 300:0.17 311:0.17 343:0.38 372:0.38 405:0.71 406:0.38 417:0.71 430:0.38 435:0.88 443:0.71 482:0.38 497:0.426 530:0.66 533:0.38 552:0.62 568:0.38 605:0.38 610:0.66 618:0.415 634:0.55 702:0.38 712:0.66 731:0.38 745:0.195 751:0.65 753:0.26 776:0.38 780:0.296 789:0.38 790:0.71 839:0.393333 844:0.7 848:0.56 851:0.66 876:0.71 909:0.38 916:0.355 
23.4253203206066 5:0.844444 29:1 58:1 89:1 90:0.385185 143:0.811111 158:1 332:0.355556 415:1 416:0.911111 488:0.922222 635:0.607407 685:0.777778 704:1 735:0.733333 739:0.488889 818:1 834:0.433333 
5.1902165959965 48:0.271429 75:0.290476 176:0.714286 182:0.357143 253:1 286:1 292:1 301:0.785714 302:0.37619 305:0.25 374:0.378571 407:0.471429 449:0.964286 470:0.928571 492:0.628571 496:0.628571 544:0.242857 636:0.957143 701:1 751:0.928571 785:0.149351 813:0.928571 835:1 844:1 849:1 874:1 913:0.785714 
0.4711867723735663 22:1 73:1 96:1 153:1 168:1 171:1 180:1 210:1 259:0.704545 303:0.931818 335:1 403:1 436:1 466:1 488:0.943182 492:1 496:1 519:1 523:0.511364 565:1 654:1 676:1 695:1 763:0.954545 801:1 811:1 860:1 877:1 895:1 899:0.727273 913:0.625 
27.90988746091121 48:0.333333 74:1 229:1 262:1 300:0.298246 302:0.461988 304:1 352:0.131579 377:0.614035 395:0.929825 485:0.614035 513:1 613:0.438596 698:0.438596 754:1 822:0.614035 
19.58733656652727 24:0.373494 47:0.795181 82:1 103:0.10241 116:0.975904 127:1 148:0.975904 195:0.710843 253:0.843373 316:0.783133 357:0.23494 369:0.313253 389:0.662651 449:0.271084 465:0.746988 480:0.325301 483:0.373494 509:1 510:1 593:0.975904 634:0.662651 753:0.313253 767:1 810:0.590361 839:0.710843 896:0.361446 907:0.493976 
10.34504254907368 48:0.520548 89:0.616438 111:0.561644 143:1 148:0.554795 201:1 266:0.616438 378:0.890411 401:1 410:0.675147 514:1 610:0.90411 657:0.616438 671:0.917808 701:0.479452 766:0.69863 769:0.188356 785:0.716065 803:1 834:0.267123 849:0.479452 863:0.972603 890:0.90411 902:0.835616 
20.12276210042433 114:1 120:1 152:1 165:1 173:1 238:1 311:0.204819 382:1 537:0.746988 564:1 566:0.73494 597:0.578313 641:0.746988 646:1 668:1 677:1 692:0.421687 698:0.301205 703:0.349398 728:0.445783 786:0.200803 821:0.487952 839:0.473896 840:0.746988 845:0.361446 865:1 874:0.843373 
27.90988746091121 98:0.477419 259:1 338:0.967742 419:1 442:1 483:1 538:1 632:0.935484 651:1 667:1 737:1 745:0.629032 780:0.477419 792:1 887:1 
27.90988746091121 27:1 75:0.521368 321:1 433:0.705128 587:0.846154 661:1 870:0.289377 
13.5153683352354 119:1 182:0.555556 282:1 355:0.733333 383:0.933333 403:0.977778 433:0.611111 449:1 592:0.216667 622:0.44 657:1 728:0.822222 739:0.488889 777:1 786:0.740741 839:0.874074 849:0.777778 
14.58039181292542 74:0.518182 118:1 151:1 301:1 311:0.927273 314:1 355:0.6 369:0.472727 376:0.636364 423:1 449:0.409091 491:0.572727 597:0.872727 602:1 626:0.290909 673:1 724:1 777:0.545455 839:0.357576 877:0.8 900:0.736364 913:1 
1.203056230026796 48:0.575758 51:1 59:1 183:1 221:1 237:1 254:1 268:1 275:1 335:0.666667 392:0.439394 422:1 430:0.575758 438:1 464:0.636364 476:1 485:0.265152 487:1 502:1 506:0.893939 524:0.621212 528:1 530:1 547:0.893939 557:1 562:1 571:1 574:1 585:1 592:0.443182 610:1 630:0.147727 663:1 689:1 691:0.787879 693:1 712:1 741:0.636364 766:0.772727 768:1 787:1 828:1 841:1 851:1 857:1 859:1 890:1 908:1 916:0.537879 
17.9928772216677 1:1 48:0.327586 49:0.655172 141:1 148:0.698276 157:1 374:0.456897 392:1 407:0.568966 462:0.505747 632:1 638:1 703:1 735:0.568966 750:1 753:0.896552 808:0.508621 823:1 
27.90988746091121 98:0.379487 100:0.512821 256:1 357:1 553:1 559:1 592:1 630:1 722:1 745:1 780:0.379487 816:0.846154 825:1 834:1 846:1 867:1 
16.02809736343459 48:0.703704 106:0.518519 148:1 196:1 272:1 305:0.648148 480:1 488:0.512346 587:0.407407 593:1 648:1 653:1 655:0.506173 698:0.308642 723:0.617284 728:0.228395 765:1 766:0.62963 821:1 823:0.716049 849:0.864198 902:0.753086 
27.90988746091121 119:0.978261 140:0.601449 189:1 264:1 283:0.956522 321:0.847826 507:0.956522 523:0.978261 698:0.543478 761:1 832:0.543478 837:1 864:1 869:0.48913 
7.462738146285852 25:0.674699 89:0.542169 90:0.208835 140:1 143:0.21988 162:1 165:1 206:1 241:0.524096 271:1 305:0.210843 311:0.204819 369:0.626506 407:0.39759 441:1 488:1 513:0.686747 514:0.879518 559:0.23494 618:1 646:1 653:0.975904 691:0.626506 724:0.331325 735:0.39759 748:0.626506 753:0.313253 765:0.650602 775:0.542169 821:0.487952 839:0.236948 845:0.722892 863:0.855422 865:1 866:0.60241 895:0.53012 905:0.987952 
15.2841003071624 32:1 48:0.197917 56:0.677083 90:0.180556 103:0.0885417 120:0.432292 140:0.288194 182:0.260417 227:1 240:0.4375 264:0.479167 274:0.322917 282:0.234375 305:0.182292 310:1 449:0.234375 465:0.645833 510:0.864583 524:0.854167 547:0.614583 549:0.916667 567:0.645833 597:1 652:1 704:0.9375 737:0.322917 739:0.229167 744:0.215278 755:0.541667 786:0.173611 845:0.3125 864:0.479167 877:0.458333 893:0.34375 902:0.635417 
27.90988746091121 48:0.150794 58:0.178571 89:0.357143 108:0.277778 125:1 130:0.357143 234:0.257937 266:0.357143 273:1 301:0.145503 412:0.507937 449:0.357143 491:1 553:0.309524 595:0.555556 607:0.404762 614:0.178571 638:0.460317 657:0.357143 692:0.277778 742:1 748:0.412698 753:0.206349 774:1 785:0.165945 823:0.460317 871:0.134921 873:0.412698 874:0.555556 890:0.52381 902:0.484127 904:1 
2.426126899859956 48:0.826087 98:0.214493 117:1 172:0.846377 289:0.608696 301:0.531401 305:0.253623 311:0.246377 410:1 420:0.833333 423:0.797101 472:1 498:0.971014 506:0.855072 521:0.768116 534:1 538:0.449275 541:0.485507 551:0.971014 558:0.32971 575:1 592:0.141304 619:0.971014 649:0.942029 665:1 780:0.214493 783:1 788:1 868:0.415459 871:0.246377 913:0.199275 
9.883679560625863 48:0.703704 98:0.182716 116:1 117:0.851852 172:0.901235 210:0.54321 245:0.654321 289:0.518519 301:0.226337 305:0.216049 311:0.209877 410:0.486772 423:0.679012 441:0.341564 472:0.851852 496:0.814815 498:0.82716 506:0.728395 521:0.654321 534:0.851852 535:1 538:0.382716 575:0.425926 592:0.361111 619:0.27572 649:0.802469 665:0.851852 766:0.62963 780:0.182716 783:0.851852 788:0.851852 867:0.240741 868:0.353909 871:0.419753 895:0.54321 900:1 913:0.169753 
2.561829408031056 2:1 45:1 48:0.267606 98:0.416901 99:0.859155 225:1 263:0.577465 289:0.591549 311:0.239437 349:1 355:0.929577 405:1 417:1 430:0.535211 443:1 497:1 506:0.830986 568:0.535211 618:0.584507 634:0.774648 696:1 712:0.929577 755:0.366197 780:0.416901 786:0.469484 790:1 839:0.276995 863:1 876:1 902:0.859155 909:0.535211 916:1 
0.4723347084554683 13:1 53:0.466102 90:0.293785 102:0.881356 119:0.762712 174:1 187:0.567797 195:1 214:0.508475 311:0.288136 320:1 382:0.70339 384:0.491525 403:0.745763 419:0.525424 433:0.466102 471:0.282486 483:0.525424 545:0.737288 547:1 581:1 588:1 692:0.59322 702:0.644068 724:0.932203 739:0.372881 746:0.932203 753:0.440678 755:0.440678 784:1 808:1 818:0.762712 839:1 845:0.508475 861:0.686441 
27.1774599328774 52:1 53:0.275 69:1 154:1 182:1 187:0.67 433:0.55 613:1 615:1 620:1 698:1 723:1 771:0.74 786:1 816:0.66 832:1 910:0.74 
-22.49897542659355 4:1 67:1 76:1 98:0.17619 109:1 149:1 197:1 204:1 242:1 261:1 440:0.892857 444:0.595238 461:0.333333 484:0.52381 522:1 658:0.690476 694:1 752:1 780:0.17619 806:0.297619 855:1 
-14.38199018267088 74:0.431818 78:1 85:1 133:0.560606 155:1 192:1 202:0.651515 251:1 260:0.924242 270:1 294:0.257576 296:1 302:0.79798 340:1 352:0.113636 396:1 402:1 516:0.893939 543:0.924242 640:0.154545 688:1 707:1 888:1 893:1 896:0.454545 
-2.427711432893195 62:1 265:1 297:1 370:1 388:1 390:1 421:0.416667 439:1 478:1 493:1 505:1 563:1 572:1 624:1 633:1 664:1 756:1 770:1 812:1 896:1 
-22.79919510799721 11:1 12:1 54:0.940299 81:1 92:1 119:0.671642 144:0.776119 169:1 358:0.78607 433:0.410448 437:1 440:0.279851 441:0.412935 453:0.373134 561:0.279851 582:1 586:0.865672 686:1 778:1 799:1 802:1 
-27.90988746091121 30:1 80:1 133:0.74 202:0.86 326:1 361:0.82 414:0.344 429:0.86 452:1 471:1 578:1 736:1 839:0.393333 875:0.573333 
-17.55282279999424 33:1 39:1 48:0.487179 137:1 212:0.606838 235:1 293:1 318:1 332:0.820513 376:0.897436 386:0.512821 425:1 426:0.307692 455:1 576:1 644:0.75641 679:1 719:1 
-27.90988746091121 208:1 276:1 294:1 296:0.647059 309:1 339:1 364:1 426:0.235294 536:1 640:1 728:0.362745 743:1 766:1 834:0.382353 869:0.441176 872:1 887:0.607843 893:0.647059 
-4.808224095052341 20:1 35:1 60:1 128:1 176:1 214:0.6 235:0.26 331:0.9 334:1 358:0.526667 375:0.67 413:1 440:0.375 546:0.64 576:0.26 580:1 626:0.32 650:0.74 682:0.52 697:0.59 738:1 757:0.5 806:1 847:1 881:0.355 912:0.82 
-17.74754464061446 112:1 136:1 212:0.63964 352:0.202703 398:1 440:0.506757 442:0.837838 500:0.756757 587:0.891892 633:0.810811 650:1 728:1 757:0.675676 771:1 772:1 820:1 847:0.337838 881:0.47973 906:1 
-22.03587887684709 38:0.931818 48:0.863636 188:0.931818 200:0.931818 293:0.886364 342:0.931818 361:0.931818 362:0.931818 409:0.931818 426:0.818182 434:0.931818 468:0.931818 484:1 517:0.931818 518:0.454545 595:0.795455 598:0.931818 720:0.931818 760:0.931818 816:0.75 882:0.931818 907:0.931818 
-11.2633014126415 205:1 341:0.746667 347:1 350:1 352:0.45 379:1 394:1 440:0.375 453:1 479:1 481:1 561:0.375 595:0.7 608:1 659:1 666:1 709:1 715:0.7 724:0.55 728:0.37 757:1 817:1 833:1 842:1 850:1 866:1 879:1 901:1 
-12.77849204079474 50:1 95:1 135:1 215:1 230:1 236:1 280:1 302:0.822917 315:0.78125 317:1 450:1 458:1 546:1 584:1 626:1 728:0.578125 836:1 899:1 
-15.17872591091194 15:1 43:1 81:0.567797 91:1 212:0.40113 278:1 319:0.813559 330:0.635593 377:0.59322 391:0.508475 506:1 516:1 555:0.59322 627:0.576271 644:1 679:0.661017 685:0.59322 697:1 724:0.466102 738:0.847458 762:1 770:0.508475 796:1 822:0.59322 831:1 847:0.635593 881:0.601695 909:0.644068 912:0.694915 
-6.705741875749632 7:1 19:1 74:0.467213 89:0.737705 115:1 133:0.606557 160:1 186:1 198:1 260:1 280:0.52459 284:1 294:0.278689 307:1 308:0.409836 354:1 366:1 385:1 397:1 418:1 433:0.45082 441:0.453552 460:1 473:1 529:1 532:1 543:1 583:1 590:1 621:1 623:1 629:1 640:0.167213 642:1 660:1 699:1 706:0.401639 711:1 721:1 730:1 732:1 733:1 792:0.508197 810:0.803279 816:0.540984 889:1 897:1 
-27.90988746091121 8:1 23:1 100:0.232558 202:1 326:0.775194 374:0.30814 376:0.406977 414:1 429:1 452:0.581395 471:0.387597 736:0.145349 745:0.226744 792:0.360465 868:1 875:1 884:0.459302 892:1 
-12.28712416902433 6:1 9:1 17:1 37:1 139:1 144:0.764706 159:1 181:1 280:0.470588 305:0.257353 313:0.661765 427:1 428:1 447:1 495:0.441176 501:0.514706 631:1 640:0.3 685:0.514706 715:0.514706 728:0.272059 743:0.25 791:1 831:0.867647 836:0.470588 848:0.823529 872:0.25 912:0.602941 914:0.588235 915:1 
-20.13494916705711 23:0.382222 70:1 108:0.777778 230:0.711111 313:1 322:0.296296 376:0.777778 387:1 416:0.911111 426:0.533333 461:0.311111 518:0.444444 531:0.777778 626:0.355556 633:0.666667 645:0.777778 826:0.37037 887:0.688889 889:0.677778 
-27.90988746091121 105:1 126:1 203:1 217:1 231:0.204545 235:0.131313 239:1 280:0.323232 332:0.161616 358:0.531987 396:0.333333 413:0.505051 469:0.565657 546:0.323232 576:0.131313 615:0.505051 622:1 642:0.616162 700:0.390572 771:0.373737 824:0.79798 858:0.707071 884:0.39899 887:0.313131 
-19.78414379787167 68:1 97:1 124:1 216:1 223:1 246:1 284:0.813333 306:1 330:1 334:0.666667 336:1 345:1 364:0.68 407:0.88 424:1 440:1 442:0.413333 561:1 700:0.515556 757:0.333333 871:0.226667 
-3.330812293474857 42:1 46:1 63:0.919304 156:1 166:1 167:1 209:1 216:0.949367 231:0.768987 246:0.949367 252:0.848101 280:0.405063 302:1 323:1 331:0.56962 341:0.236287 348:1 358:0.666667 368:1 371:1 380:1 399:1 426:0.151899 445:0.919304 446:1 459:1 499:1 504:1 515:1 556:1 558:0.287975 569:1 570:1 589:1 596:1 604:1 615:0.632911 625:1 670:1 674:1 706:0.620253 714:1 728:0.234177 747:1 771:0.468354 782:1 803:0.924051 807:1 814:1 816:0.417722 838:1 853:1 870:1 884:1 887:0.392405 896:0.379747 
-5.737021818163201 72:1 86:1 88:1 108:1 222:1 243:1 294:0.485714 373:1 377:1 426:0.342857 501:1 511:1 527:1 531:1 554:1 609:1 626:0.457143 645:1 662:1 685:1 687:1 690:1 700:0.552381 715:1 717:1 729:1 743:0.485714 822:1 856:1 870:0.322449 872:0.485714 917:1 
-23.4925345640609 31:0.783784 64:1 98:1 100:0.540541 133:1 170:1 191:0.540541 211:1 250:1 541:0.905405 591:0.783784 622:0.535135 626:0.216216 633:0.405405 664:0.810811 667:0.418919 685:0.472973 688:0.891892 767:0.280405 771:0.5 780:1 798:1 876:0.959459 889:0.412162 896:0.405405 910:1 913:0.185811 918:0.648649 
-16.21008831328421 57:1 171:0.897959 235:0.265306 281:1 295:1 298:1 315:0.510204 332:0.326531 386:0.408163 489:1 518:0.408163 561:0.765306 576:0.265306 644:0.602041 706:1 800:1 810:1 815:1 829:1 911:1 918:0.979592 
-6.337396132489113 21:1 235:0.8125 247:1 280:0.666667 298:0.765625 312:1 319:1 332:1 351:1 408:1 426:1 489:0.510417 518:0.416667 576:0.8125 626:0.333333 700:0.402778 749:0.583333 889:0.635417 903:1 918:1 
-0.8671900880091244 205:1 341:0.746667 347:1 350:1 352:0.45 379:1 394:1 440:0.375 453:1 479:1 481:1 561:0.375 595:0.7 608:1 659:1 666:1 709:1 715:0.7 724:0.55 728:0.37 757:1 817:1 833:1 842:1 850:1 866:1 879:1 901:1 
-27.90988746091121 27:0.619048 31:0.920635 54:1 62:0.47619 98:0.234921 112:0.587302 265:0.47619 297:0.47619 370:0.47619 388:0.47619 390:0.47619 421:0.992063 439:0.47619 478:0.952381 493:0.47619 505:0.47619 563:0.47619 572:0.952381 624:0.47619 626:0.507937 633:0.47619 664:0.47619 756:0.47619 757:0.396825 770:0.47619 780:0.234921 812:0.793651 896:0.47619 
-20.44852276478239 63:0.444643 220:1 233:0.571429 295:0.7 305:1 441:0.395238 445:0.444643 461:1 508:1 518:0.571429 546:0.457143 582:0.957143 633:0.428571 639:0.742857 692:1 738:0.714286 749:0.4 764:1 792:0.442857 795:1 806:0.357143 858:1 
-16.65154821669394 93:1 112:0.74 177:1 352:0.45 362:0.82 387:0.9 408:0.96 421:1 471:0.666667 633:0.6 645:0.7 667:0.62 757:0.5 826:1 870:0.451429 887:0.62 
-2.908056163943735 7:1 19:1 74:0.467213 89:0.737705 115:1 133:0.606557 160:1 186:1 198:1 260:1 280:0.52459 284:1 294:0.278689 307:1 308:0.409836 354:1 366:1 385:1 397:1 418:1 433:0.45082 441:0.453552 460:1 473:1 529:1 532:1 543:1 583:1 590:1 621:1 623:1 629:1 640:0.167213 642:1 660:1 699:1 706:0.401639 711:1 721:1 730:1 732:1 733:1 792:0.508197 810:0.803279 816:0.540984 889:1 897:1 
-26.00820736500597 48:0.365385 144:1 193:1 222:0.673077 359:1 369:0.5 376:0.673077 391:0.576923 426:0.230769 431:1 440:0.360577 449:0.432692 450:0.615385 531:0.673077 561:0.360577 584:0.615385 639:1 675:0.509615 691:1 717:0.673077 743:0.326923 756:0.576923 757:0.480769 872:0.326923 
-16.32199689708844 44:0.91 63:0.10375 74:0.285 79:1 144:0.52 150:0.91 270:0.66 308:1 338:0.3 339:0.51 341:0.56 351:0.48 356:0.4 369:0.52 377:0.35 411:0.82 421:0.25 445:0.10375 461:0.28 508:0.233333 540:0.56 546:0.32 617:0.6 640:0.102 684:1 687:0.35 690:0.35 705:0.4 706:0.245 709:0.5 715:0.35 728:0.185 738:0.5 759:0.52 791:0.34 822:0.35 866:0.5 870:0.902857 884:0.395 893:0.33 
-6.901795041142972 36:1 91:0.276995 142:1 161:1 176:0.704225 212:1 235:0.732394 249:1 298:0.172535 362:0.577465 431:0.732394 440:0.264085 441:0.389671 455:0.549296 469:0.788732 471:0.234742 518:0.28169 576:0.732394 598:0.288732 683:1 725:1 728:0.260563 772:0.521127 796:0.830986 816:0.464789 820:0.521127 862:1 870:0.158954 881:1 893:0.464789 
-9.081896254710529 41:1 48:0.234568 71:1 104:1 134:1 142:0.876543 212:0.876543 231:1 232:1 235:0.641975 251:0.271605 289:0.518519 290:1 305:0.432099 312:0.592593 344:1 358:0.325103 444:0.617284 500:0.691358 518:0.740741 576:0.641975 683:0.876543 718:1 725:0.876543 792:0.382716 848:0.691358 881:0.657407 886:1 894:1 916:0.438272 
-18.10305657683223 25:1 63:0.370536 103:0.151786 132:1 235:0.232143 290:0.723214 331:0.803571 341:1 351:0.857143 393:1 445:0.370536 468:0.732143 469:1 492:0.785714 500:1 517:0.418367 518:0.714286 540:1 576:0.232143 749:1 848:1 881:0.633929 
-23.50854077264436 100:1 191:1 233:1 322:1 356:1 432:1 474:0.75 518:1 705:1 771:0.925 887:0.775 896:0.75 914:1 
-27.90988746091121 48:0.463415 57:0.29878 71:0.987805 93:0.609756 110:1 135:0.390244 138:1 393:0.682927 411:1 457:1 489:0.597561 546:0.390244 616:1 633:0.365854 667:0.378049 779:0.512195 803:0.890244 807:0.963415 821:0.493902 862:0.216463 884:0.481707 893:0.402439 910:0.902439 912:1 
-27.90988746091121 74:0.95 98:0.986667 214:1 338:1 352:1 391:1 474:1 495:1 617:1 626:0.533333 780:0.986667 845:1 
-21.33513110086643 123:1 147:1 376:1 421:0.357143 440:0.535714 485:1 555:1 595:1 627:0.971429 645:1 715:1 793:1 826:0.47619 836:0.914286 870:0.322449 
-1.819631472017026 35:0.549451 44:1 81:0.368132 113:1 150:1 213:0.296703 228:1 231:0.222527 244:1 276:0.56044 294:0.934066 336:0.824176 338:0.32967 356:0.879121 393:0.615385 426:0.659341 457:0.901099 501:0.769231 508:0.512821 516:0.648352 546:0.703297 558:1 615:0.549451 617:0.32967 639:0.571429 684:0.549451 743:0.373626 757:0.549451 772:0.406593 793:0.384615 870:0.124019 872:0.373626 887:0.340659 896:0.32967 914:0.43956 
-15.85378681967296 65:1 176:0.746269 219:1 252:1 298:0.365672 302:0.393035 315:0.746269 358:0.78607 375:1 376:0.522388 413:0.746269 440:0.279851 442:0.925373 545:0.649254 546:0.477612 561:0.839552 579:1 595:0.522388 672:1 678:1 706:0.365672 762:0.880597 766:0.761194 792:0.462687 870:0.168443 877:0.656716 907:0.61194 
-27.90988746091121 
-24.14352510912206 16:1 48:0.38 107:1 111:0.41 129:1 136:0.74 209:0.79 212:0.236667 315:1 317:0.64 367:1 386:1 413:0.5 440:0.1875 444:1 561:0.5625 621:0.61 718:0.405 724:0.55 727:1 791:0.34 815:0.245 819:1 850:0.5 867:0.39 896:0.3 906:0.37 
